<?xml version="1.0"?>
<opencv_storage>
<cascade>
  <stageType>BOOST</stageType>
  <featureType>HAAR</featureType>
  <height>50</height>
  <width>50</width>
  <stageParams>
    <boostType>GAB</boostType>
    <minHitRate>9.9900001287460327e-01</minHitRate>
    <maxFalseAlarm>5.0000000000000000e-01</maxFalseAlarm>
    <weightTrimRate>9.4999999999999996e-01</weightTrimRate>
    <maxDepth>1</maxDepth>
    <maxWeakCount>100</maxWeakCount></stageParams>
  <featureParams>
    <maxCatCount>0</maxCatCount>
    <featSize>1</featSize>
    <mode>ALL</mode></featureParams>
  <stageNum>2</stageNum>
  <stages>
    <!-- stage 0 -->
    <_>
      <maxWeakCount>1</maxWeakCount>
      <stageThreshold>9.7029703855514526e-01</stageThreshold>
      <weakClassifiers>
        <_>
          <internalNodes>
            0 -1 3 -4.7337621450424194e-02</internalNodes>
          <leafValues>
            9.7029703855514526e-01 -1.</leafValues></_></weakClassifiers></_>
    <!-- stage 1 -->
    <_>
      <maxWeakCount>3</maxWeakCount>
      <stageThreshold>-7.5883483886718750e-01</stageThreshold>
      <weakClassifiers>
        <_>
          <internalNodes>
            0 -1 0 8.8837221264839172e-03</internalNodes>
          <leafValues>
            -8.0952382087707520e-01 9.3782383203506470e-01</leafValues></_>
        <_>
          <internalNodes>
            0 -1 1 1.2680556625127792e-02</internalNodes>
          <leafValues>
            -8.2873815298080444e-01 9.0994966030120850e-01</leafValues></_>
        <_>
          <internalNodes>
            0 -1 2 1.8261105287820101e-03</internalNodes>
          <leafValues>
            -7.1674221754074097e-01 8.7942713499069214e-01</leafValues></_></weakClassifiers></_></stages>
  <features>
    <_>
      <rects>
        <_>
          14 24 10 5 -1.</_>
        <_>
          19 24 5 5 2.</_></rects>
      <tilted>0</tilted></_>
    <_>
      <rects>
        <_>
          17 27 12 9 -1.</_>
        <_>
          14 30 12 3 3.</_></rects>
      <tilted>1</tilted></_>
    <_>
      <rects>
        <_>
          30 36 6 4 -1.</_>
        <_>
          32 38 2 4 3.</_></rects>
      <tilted>1</tilted></_>
    <_>
      <rects>
        <_>
          35 16 10 14 -1.</_>
        <_>
          35 16 10 7 2.</_></rects>
      <tilted>1</tilted></_></features></cascade>
</opencv_storage>
